{"learner":{"attributes":{"scikit_learn":"{\"_estimator_type\": \"classifier\"}"},"feature_names":[],"feature_types":[],"gradient_booster":{"model":{"cats":{"enc":[],"feature_segments":[],"sorted_idx":[]},"gbtree_model_param":{"num_parallel_tree":"1","num_trees":"50"},"iteration_indptr":[0,1,2,3,4,5,6,7,8,9,10,11,12,13,14,15,16,17,18,19,20,21,22,23,24,25,26,27,28,29,30,31,32,33,34,35,36,37,38,39,40,41,42,43,44,45,46,47,48,49,50],"tree_info":[0,0,0,0,0,0,0,0,0,0,0,0,0,0,0,0,0,0,0,0,0,0,0,0,0,0,0,0,0,0,0,0,0,0,0,0,0,0,0,0,0,0,0,0,0,0,0,0,0,0],"trees":[{"base_weights":[-1.461391E-8,6.0670424E-1,-4.9751782E-1,6.1705608E-2,1.376091E0,-6.8928885E-1,8.791149E-2,-6.84408E-2,8.192869E-2,1.8301363E-1,1.8187582E-2,2.323038E-2,-9.7397245E-2],"categories":[],"categories_nodes":[],"categories_segments":[],"categories_sizes":[],"default_left":[0,0,0,0,0,0,0,0,0,0,0,0,0],"id":0,"left_children":[1,3,5,7,9,11,-1,-1,-1,-1,-1,-1,-1],"loss_changes":[7.0729904E0,4.3420897E0,4.00487E0,4.645723E0,2.015376E0,3.3381429E0,0E0,0E0,0E0,0E0,0E0,0E0,0E0],"parents":[2147483647,0,0,1,1,2,2,3,3,4,4,5,5],"right_children":[2,4,6,8,10,12,-1,-1,-1,-1,-1,-1,-1],"split_conditions":[9.8081475E-1,1.632332E0,7.341167E1,9.092307E-1,1.7168084E0,1.5281297E0,8.791149E-2,-6.84408E-2,8.192869E-2,1.8301363E-1,1.8187582E-2,2.323038E-2,-9.7397245E-2],"split_indices":[2,0,1,2,0,0,0,0,0,0,0,0,0],"split_type":[0,0,0,0,0,0,0,0,0,0,0,0,0],"sum_hessian":[2.1432432E1,9.557706E0,1.1874726E1,6.22699E0,3.330716E0,1.086103E1,1.0136961E0,3.185902E0,3.0410883E0,2.0273921E0,1.3033236E0,2.6066473E0,8.254383E0],"tree_param":{"num_deleted":"0","num_feature":"4","num_nodes":"13","size_leaf_vector":"1"}},{"base_weights":[7.4608335E-3,5.4851604E-1,-4.6395913E-1,5.5641394E-2,1.2074324E0,4.1800275E-1,-7.6287365E-1,-6.554492E-2,7.267069E-2,1.7088155E-1,2.7937302E-2,-5.382827E-3,8.534234E-2,-9.3838215E-2,3.43309E-2],"categories":[],"categories_nodes":[],"categories_segments":[],"categories_sizes":[],"default_left":[0,0,0,0,0,0,0,0,0,0,0,0,0,0,0],"id":1,"left_children":[1,3,5,7,9,11,13,-1,-1,-1,-1,-1,-1,-1,-1],"loss_changes":[5.941449E0,3.4531193E0,3.602828E0,3.9356606E0,1.658473E0,8.26455E-1,2.1970935E0,0E0,0E0,0E0,0E0,0E0,0E0,0E0,0E0],"parents":[2147483647,0,0,1,1,2,2,3,3,4,4,5,5,6,6],"right_children":[2,4,6,8,10,12,14,-1,-1,-1,-1,-1,-1,-1,-1],"split_conditions":[9.8081475E-1,1.632332E0,1.530979E0,9.092307E-1,1.6935803E0,1.5210966E0,7.265638E1,-6.554492E-2,7.267069E-2,1.7088155E-1,2.7937302E-2,-5.382827E-3,8.534234E-2,-9.3838215E-2,3.43309E-2],"split_indices":[2,0,0,2,0,0,1,0,0,0,0,0,0,0,0],"split_type":[0,0,0,0,0,0,0,0,0,0,0,0,0,0,0],"sum_hessian":[2.129619E1,9.8396015E0,1.1456588E1,6.2494254E0,3.5901763E0,2.7991514E0,8.657436E0,3.0455246E0,3.203901E0,1.7847102E0,1.8054662E0,1.7640098E0,1.0351417E0,7.60285E0,1.0545858E0],"tree_param":{"num_deleted":"0","num_feature":"4","num_nodes":"15","size_leaf_vector":"1"}},{"base_weights":[1.4707495E-2,4.9988198E-1,-4.3188867E-1,4.963587E-2,1.0767372E0,-6.2434405E-1,7.7783495E-2,-6.27689E-2,6.475788E-2,1.4967373E-1,2.5830567E-2,1.9220512E-2,-9.1317944E-2],"categories":[],"categories_nodes":[],"categories_segments":[],"categories_sizes":[],"default_left":[0,0,0,0,0,0,0,0,0,0,0,0,0],"id":2,"left_children":[1,3,5,7,9,11,-1,-1,-1,-1,-1,-1,-1],"loss_changes":[5.008838E0,2.8206143E0,3.2921448E0,3.348087E0,1.2642012E0,2.759169E0,0E0,0E0,0E0,0E0,0E0,0E0,0E0],"parents":[2147483647,0,0,1,1,2,2,3,3,4,4,5,5],"right_children":[2,4,6,8,10,12,-1,-1,-1,-1,-1,-1,-1],"split_conditions":[9.8081475E-1,1.632332E0,7.341167E1,9.092307E-1,1.6935803E0,1.5281297E0,7.7783495E-2,-6.27689E-2,6.475788E-2,1.4967373E-1,2.5830567E-2,1.9220512E-2,-9.1317944E-2],"split_indices":[2,0,1,2,0,0,0,0,0,0,0,0,0],"split_type":[0,0,0,0,0,0,0,0,0,0,0,0,0],"sum_hessian":[2.1120224E1,1.00657015E1,1.10545225E1,6.2632017E0,3.8024995E0,9.954718E0,1.0998044E0,2.913342E0,3.34986E0,1.965211E0,1.8372884E0,2.688571E0,7.266147E0],"tree_param":{"num_deleted":"0","num_feature":"4","num_nodes":"13","size_leaf_vector":"1"}},{"base_weights":[1.9712286E-2,4.562386E-1,-4.0258506E-1,-6.136483E-2,6.2811804E-1,3.7066352E-1,-6.9891834E-1,1.8622492E-2,1.1081269E-1,-9.054402E-3,8.249738E-2,-8.7926894E-2,2.8683146E-2],"categories":[],"categories_nodes":[],"categories_segments":[],"categories_sizes":[],"default_left":[0,0,0,0,0,0,0,0,0,0,0,0,0],"id":3,"left_children":[1,3,5,-1,7,9,11,-1,-1,-1,-1,-1,-1],"loss_changes":[4.228035E0,2.455441E0,2.9360027E0,0E0,1.9556417E0,8.898091E-1,1.8153224E0,0E0,0E0,0E0,0E0,0E0,0E0],"parents":[2147483647,0,0,1,1,2,2,4,4,5,5,6,6],"right_children":[2,4,6,-1,8,10,12,-1,-1,-1,-1,-1,-1],"split_conditions":[9.8081475E-1,8.415541E-1,1.530979E0,-6.136483E-2,1.632332E0,6.183741E-1,7.265638E1,1.8622492E-2,1.1081269E-1,-9.054402E-3,8.249738E-2,-8.7926894E-2,2.8683146E-2],"split_indices":[2,2,0,0,0,3,1,0,0,0,0,0,0],"split_type":[0,0,0,0,0,0,0,0,0,0,0,0,0],"sum_hessian":[2.093921E1,1.0256624E1,1.0682586E1,1.063915E0,9.19271E0,2.8901718E0,7.792414E0,5.509063E0,3.6836467E0,1.831533E0,1.0586389E0,6.6785426E0,1.1138712E0],"tree_param":{"num_deleted":"0","num_feature":"4","num_nodes":"13","size_leaf_vector":"1"}},{"base_weights":[2.0001534E-2,3.568912E-1,-4.4066888E-1,-1.2560679E-1,8.287544E-1,6.7962654E-2,-6.845283E-1,2.3651628E-2,-4.6538986E-2,-3.0046994E-2,1.16704166E-1,-9.949188E-2,1.7492903E-2],"categories":[],"categories_nodes":[],"categories_segments":[],"categories_sizes":[],"default_left":[0,0,0,0,0,0,0,0,0,0,0,0,0],"id":4,"left_children":[1,3,5,7,9,-1,11,-1,-1,-1,-1,-1,-1],"loss_changes":[3.544003E0,3.0996227E0,3.1057239E0,1.0173502E0,2.9419703E0,0E0,2.4244072E0,0E0,0E0,0E0,0E0,0E0,0E0],"parents":[2147483647,0,0,1,1,2,2,3,3,4,4,6,6],"right_children":[2,4,6,8,10,-1,12,-1,-1,-1,-1,-1,-1],"split_conditions":[1.0103105E0,6.0091186E-1,5.236653E-1,5.445057E-1,8.75085E-1,6.7962654E-2,6.60868E-1,2.3651628E-2,-4.6538986E-2,-3.0046994E-2,1.16704166E-1,-9.949188E-2,1.7492903E-2],"split_indices":[2,3,3,3,2,0,3,0,0,0,0,0,0],"split_type":[0,0,0,0,0,0,0,0,0,0,0,0,0],"sum_hessian":[2.0822414E1,1.2157139E1,8.665275E0,6.3736486E0,5.7834907E0,1.229583E0,7.4356914E0,3.2325184E0,3.14113E0,1.3589662E0,4.4245243E0,5.3470187E0,2.0886726E0],"tree_param":{"num_deleted":"0","num_feature":"4","num_nodes":"13","size_leaf_vector":"1"}},{"base_weights":[1.8480811E-2,3.7370387E-1,-3.5567978E-1,-5.8917083E-2,5.1993E-1,-5.6164503E-1,8.632099E-2,1.3767592E-2,9.2867605E-2,1.666298E-2,-8.547644E-2],"categories":[],"categories_nodes":[],"categories_segments":[],"categories_sizes":[],"default_left":[0,0,0,0,0,0,0,0,0,0,0],"id":5,"left_children":[1,3,5,-1,7,9,-1,-1,-1,-1,-1],"loss_changes":[3.0258038E0,1.9470456E0,3.2746313E0,0E0,1.5358224E0,2.3010743E0,0E0,0E0,0E0,0E0,0E0],"parents":[2147483647,0,0,1,1,2,2,4,4,5,5],"right_children":[2,4,6,-1,8,10,-1,-1,-1,-1,-1],"split_conditions":[9.8081475E-1,8.415541E-1,7.3551285E1,-5.8917083E-2,1.632332E0,1.5281297E0,8.632099E-2,1.3767592E-2,9.2867605E-2,1.666298E-2,-8.547644E-2],"split_indices":[2,2,1,0,0,0,0,0,0,0,0],"split_type":[0,0,0,0,0,0,0,0,0,0,0],"sum_hessian":[2.0765667E1,1.0653037E1,1.011263E1,1.0051457E0,9.647892E0,9.1121025E0,1.000527E0,5.676307E0,3.9715846E0,2.7388282E0,6.373275E0],"tree_param":{"num_deleted":"0","num_feature":"4","num_nodes":"11","size_leaf_vector":"1"}},{"base_weights":[1.840719E-2,-2.6744172E-1,4.4814625E-1,1.6833399E-1,-8.547347E-1,-3.167284E-1,1.054081E0,9.2023365E-2,-1.7844597E-2,-9.7273126E-2,-1.7730188E-2,3.6029875E-2,-6.0564067E-2,1.3249616E-1,1.4520951E-2],"categories":[],"categories_nodes":[],"categories_segments":[],"categories_sizes":[],"default_left":[0,0,0,0,0,0,0,0,0,0,0,0,0,0,0],"id":6,"left_children":[1,3,5,7,9,11,13,-1,-1,-1,-1,-1,-1,-1,-1],"loss_changes":[2.7763257E0,3.6278732E0,4.510698E0,2.4196734E0,3.0418825E-1,1.1478251E0,1.1025004E0,0E0,0E0,0E0,0E0,0E0,0E0,0E0,0E0],"parents":[2147483647,0,0,1,1,2,2,3,3,4,4,5,5,6,6],"right_children":[2,4,6,8,10,12,14,-1,-1,-1,-1,-1,-1,-1,-1],"split_conditions":[5.5237366E1,4.3895042E1,6.047042E-1,5.295708E-1,5.2227505E1,5.2053225E-1,6.847647E-1,9.2023365E-2,-1.7844597E-2,-9.7273126E-2,-1.7730188E-2,3.6029875E-2,-6.0564067E-2,1.3249616E-1,1.4520951E-2],"split_indices":[1,1,3,3,1,3,3,0,0,0,0,0,0,0,0],"split_type":[0,0,0,0,0,0,0,0,0,0,0,0,0,0,0],"sum_hessian":[2.062539E1,1.2613171E1,8.012219E0,7.6501074E0,4.963063E0,3.752592E0,4.259628E0,1.892681E0,5.7574263E0,3.8555822E0,1.1074805E0,1.0484955E0,2.7040966E0,2.9288898E0,1.330738E0],"tree_param":{"num_deleted":"0","num_feature":"4","num_nodes":"15","size_leaf_vector":"1"}},{"base_weights":[1.8752592E-2,3.2829678E-1,-3.2511127E-1,1.3861195E-2,6.9205165E-1,-5.2678925E-1,7.735792E-2,-5.970431E-2,5.0872087E-2,9.2270516E-2,-1.5900265E-2,1.5914124E-2,-8.2338326E-2],"categories":[],"categories_nodes":[],"categories_segments":[],"categories_sizes":[],"default_left":[0,0,0,0,0,0,0,0,0,0,0,0,0],"id":7,"left_children":[1,3,5,7,9,11,-1,-1,-1,-1,-1,-1,-1],"loss_changes":[2.4022048E0,1.3454086E0,2.7826273E0,2.533149E0,1.2208936E0,2.0945377E0,0E0,0E0,0E0,0E0,0E0,0E0,0E0],"parents":[2147483647,0,0,1,1,2,2,3,3,4,4,5,5],"right_children":[2,4,6,8,10,12,-1,-1,-1,-1,-1,-1,-1],"split_conditions":[9.8081475E-1,1.632332E0,7.3551285E1,9.092307E-1,1.7286887E0,1.5281297E0,7.735792E-2,-5.970431E-2,5.0872087E-2,9.2270516E-2,-1.5900265E-2,1.5914124E-2,-8.2338326E-2],"split_indices":[2,0,1,2,0,0,0,0,0,0,0,0,0],"split_type":[0,0,0,0,0,0,0,0,0,0,0,0,0],"sum_hessian":[2.056566E1,1.084675E1,9.71891E0,6.3745723E0,4.4721785E0,8.651375E0,1.0675352E0,2.7603862E0,3.6141863E0,3.4523332E0,1.019845E0,2.7514825E0,5.8998923E0],"tree_param":{"num_deleted":"0","num_feature":"4","num_nodes":"13","size_leaf_vector":"1"}},{"base_weights":[1.9333368E-2,-2.5211337E-1,4.158502E-1,1.5272363E-1,-8.279001E-1,-2.845894E-1,9.2858344E-1,8.253696E-2,-1.7266976E-2,-9.4781615E-2,-1.6607054E-2,3.5375834E-2,-5.7331324E-2,1.1961434E-1,-1.2973428E-2],"categories":[],"categories_nodes":[],"categories_segments":[],"categories_sizes":[],"default_left":[0,0,0,0,0,0,0,0,0,0,0,0,0,0,0],"id":8,"left_children":[1,3,5,7,9,11,13,-1,-1,-1,-1,-1,-1,-1,-1],"loss_changes":[2.4059148E0,3.2298098E0,3.5199876E0,2.0382879E0,2.9116368E-1,1.0500305E0,1.703681E0,0E0,0E0,0E0,0E0,0E0,0E0,0E0,0E0],"parents":[2147483647,0,0,1,1,2,2,3,3,4,4,5,5,6,6],"right_children":[2,4,6,8,10,12,14,-1,-1,-1,-1,-1,-1,-1,-1],"split_conditions":[5.5237366E1,4.3895042E1,6.047042E-1,5.295708E-1,5.2227505E1,5.2053225E-1,1.6915698E0,8.253696E-2,-1.7266976E-2,-9.4781615E-2,-1.6607054E-2,3.5375834E-2,-5.7331324E-2,1.1961434E-1,-1.2973428E-2],"split_indices":[1,1,3,3,1,3,0,0,0,0,0,0,0,0,0],"split_type":[0,0,0,0,0,0,0,0,0,0,0,0,0,0,0],"sum_hessian":[2.0378847E1,1.2313484E1,8.065362E0,7.661454E0,4.65203E0,3.596786E0,4.468576E0,1.9969258E0,5.6645284E0,3.5726E0,1.07943E0,1.0500196E0,2.5467665E0,3.4628742E0,1.0057017E0],"tree_param":{"num_deleted":"0","num_feature":"4","num_nodes":"15","size_leaf_vector":"1"}},{"base_weights":[1.7815996E-2,-2.5172514E-1,3.5572994E-1,2.9922524E-1,-5.8294904E-1,-1.4167662E-1,8.355328E-1,-3.817382E-2,7.068869E-2,-8.077099E-2,-1.1938176E-2,7.9852216E-2,-8.756565E-2,1.1435282E-1,-1.9280566E-2],"categories":[],"categories_nodes":[],"categories_segments":[],"categories_sizes":[],"default_left":[0,0,0,0,0,0,0,0,0,0,0,0,0,0,0],"id":9,"left_children":[1,3,5,7,9,11,13,-1,-1,-1,-1,-1,-1,-1,-1],"loss_changes":[2.03055E0,2.4446218E0,2.4740074E0,1.7499263E0,7.4842024E-1,4.633622E0,1.8576441E0,0E0,0E0,0E0,0E0,0E0,0E0,0E0,0E0],"parents":[2147483647,0,0,1,1,2,2,3,3,4,4,5,5,6,6],"right_children":[2,4,6,8,10,12,14,-1,-1,-1,-1,-1,-1,-1,-1],"split_conditions":[6.1598843E-1,5.295708E-1,5.5237366E1,5.138758E-1,5.2227505E1,3.477574E1,1.6823798E0,-3.817382E-2,7.068869E-2,-8.077099E-2,-1.1938176E-2,7.9852216E-2,-8.756565E-2,1.1435282E-1,-1.9280566E-2],"split_indices":[3,3,1,3,1,1,0,0,0,0,0,0,0,0,0],"split_type":[0,0,0,0,0,0,0,0,0,0,0,0,0,0,0],"sum_hessian":[2.0310577E1,1.1440214E1,8.870363E0,4.3316507E0,7.1085634E0,4.7012973E0,4.1690664E0,1.645903E0,2.6857479E0,4.287424E0,2.8211393E0,2.0225532E0,2.678744E0,3.1219902E0,1.0470761E0],"tree_param":{"num_deleted":"0","num_feature":"4","num_nodes":"15","size_leaf_vector":"1"}},{"base_weights":[1.5760329E-2,1.2723213E-1,-7.758769E-2,-9.398156E-2,8.2441735E-1,-2.1028185E-2,7.924278E-2,2.1237504E-2,1.3851085E-1],"categories":[],"categories_nodes":[],"categories_segments":[],"categories_sizes":[],"default_left":[0,0,0,0,0,0,0,0,0],"id":10,"left_children":[1,3,-1,5,7,-1,-1,-1,-1],"loss_changes":[1.9727067E0,3.0809069E0,0E0,1.7831872E0,1.3506463E0,0E0,0E0,0E0,0E0],"parents":[2147483647,0,0,1,1,3,3,4,4],"right_children":[2,4,-1,6,8,-1,-1,-1,-1],"split_conditions":[1.7354323E0,1.6755284E0,-7.758769E-2,7.341167E1,4.7288445E1,-2.1028185E-2,7.924278E-2,2.1237504E-2,1.3851085E-1],"split_indices":[0,0,0,1,1,0,0,0,0],"split_type":[0,0,0,0,0,0,0,0,0],"sum_hessian":[2.0236164E1,1.8474077E1,1.7620873E0,1.46810465E1,3.7930305E0,1.3652552E1,1.0284957E0,2.4726715E0,1.3203591E0],"tree_param":{"num_deleted":"0","num_feature":"4","num_nodes":"9","size_leaf_vector":"1"}},{"base_weights":[2.025206E-2,2.9860413E-1,-3.0189943E-1,8.07443E-1,8.3074816E-2,-4.878894E-1,6.1865497E-2,8.897969E-3,1.2551545E-1,-5.2640717E-2,5.0804954E-2,1.6313285E-2,-7.9108745E-2],"categories":[],"categories_nodes":[],"categories_segments":[],"categories_sizes":[],"default_left":[0,0,0,0,0,0,0,0,0,0,0,0,0],"id":11,"left_children":[1,3,5,7,9,11,-1,-1,-1,-1,-1,-1,-1],"loss_changes":[1.9850622E0,1.2313292E0,2.0640485E0,9.8454213E-1,2.7102776E0,1.9295485E0,0E0,0E0,0E0,0E0,0E0,0E0,0E0],"parents":[2147483647,0,0,1,1,2,2,3,3,4,4,5,5],"right_children":[2,4,6,8,10,12,-1,-1,-1,-1,-1,-1,-1],"split_conditions":[9.8081475E-1,3.477574E1,7.3551285E1,5.9922576E-1,5.1583157E1,1.5281297E0,6.1865497E-2,8.897969E-3,1.2551545E-1,-5.2640717E-2,5.0804954E-2,1.6313285E-2,-7.9108745E-2],"split_indices":[2,1,1,3,1,0,0,0,0,0,0,0,0],"split_type":[0,0,0,0,0,0,0,0,0,0,0,0,0],"sum_hessian":[2.0131721E1,1.0839255E1,9.292466E0,2.4079792E0,8.431276E0,8.121577E0,1.1708891E0,1.3846732E0,1.023306E0,3.3656764E0,5.0655994E0,2.7273693E0,5.3942075E0],"tree_param":{"num_deleted":"0","num_feature":"4","num_nodes":"13","size_leaf_vector":"1"}},{"base_weights":[2.3563612E-2,1.2889367E-1,-7.510166E-2,-7.9931036E-2,7.656219E-1,5.251057E-2,-2.3635713E-2,2.0306524E-2,1.2587158E-1],"categories":[],"categories_nodes":[],"categories_segments":[],"categories_sizes":[],"default_left":[0,0,0,0,0,0,0,0,0],"id":12,"left_children":[1,3,-1,5,7,-1,-1,-1,-1],"loss_changes":[1.8055344E0,2.6261146E0,0E0,1.584616E0,1.0921421E0,0E0,0E0,0E0,0E0],"parents":[2147483647,0,0,1,1,3,3,4,4],"right_children":[2,4,-1,6,8,-1,-1,-1,-1],"split_conditions":[1.7354323E0,1.6755284E0,-7.510166E-2,1.4955857E0,4.7288445E1,5.251057E-2,-2.3635713E-2,2.0306524E-2,1.2587158E-1],"split_indices":[0,0,0,0,1,0,0,0,0],"split_type":[0,0,0,0,0,0,0,0,0],"sum_hessian":[1.99438E1,1.8290228E1,1.6535723E0,1.4431623E1,3.8586044E0,2.4804926E0,1.1951132E1,2.4618118E0,1.3967925E0],"tree_param":{"num_deleted":"0","num_feature":"4","num_nodes":"9","size_leaf_vector":"1"}},{"base_weights":[2.5480988E-2,2.7728778E-1,-2.7710125E-1,7.541549E-1,7.272863E-2,-4.6036386E-1,5.844591E-2,8.701129E-3,1.1592374E-1,-4.9550455E-2,4.5246873E-2,1.4851992E-2,-7.633149E-2],"categories":[],"categories_nodes":[],"categories_segments":[],"categories_sizes":[],"default_left":[0,0,0,0,0,0,0,0,0,0,0,0,0],"id":13,"left_children":[1,3,5,7,9,11,-1,-1,-1,-1,-1,-1,-1],"loss_changes":[1.666941E0,1.1050259E0,1.8447101E0,8.3491254E-1,2.2585151E0,1.734473E0,0E0,0E0,0E0,0E0,0E0,0E0,0E0],"parents":[2147483647,0,0,1,1,2,2,3,3,4,4,5,5],"right_children":[2,4,6,8,10,12,-1,-1,-1,-1,-1,-1,-1],"split_conditions":[9.8081475E-1,3.477574E1,7.3551285E1,5.9922576E-1,5.1583157E1,1.5281297E0,5.844591E-2,8.701129E-3,1.1592374E-1,-4.9550455E-2,4.5246873E-2,1.4851992E-2,-7.633149E-2],"split_indices":[2,1,1,3,1,0,0,0,0,0,0,0,0],"split_type":[0,0,0,0,0,0,0,0,0,0,0,0,0],"sum_hessian":[1.9869629E1,1.0890351E1,8.979278E0,2.4626658E0,8.427686E0,7.788292E0,1.1909859E0,1.3893304E0,1.0733353E0,3.2538533E0,5.1738324E0,2.7569706E0,5.031321E0],"tree_param":{"num_deleted":"0","num_feature":"4","num_nodes":"13","size_leaf_vector":"1"}},{"base_weights":[2.7849877E-2,1.2731199E-1,-7.2790205E-2,-6.971691E-2,7.134592E-1,-6.19118E-2,1.0591201E-2,1.1903795E-1,1.9407077E-2],"categories":[],"categories_nodes":[],"categories_segments":[],"categories_sizes":[],"default_left":[0,0,0,0,0,0,0,0,0],"id":14,"left_children":[1,3,-1,5,7,-1,-1,-1,-1],"loss_changes":[1.6474866E0,2.259011E0,0E0,1.5349549E0,9.83155E-1,0E0,0E0,0E0,0E0],"parents":[2147483647,0,0,1,1,3,3,4,4],"right_children":[2,4,-1,6,8,-1,-1,-1,-1],"split_conditions":[1.7354323E0,1.6755284E0,-7.2790205E-2,9.092307E-1,9.061716E-1,-6.19118E-2,1.0591201E-2,1.1903795E-1,1.9407077E-2],"split_indices":[0,0,0,2,2,0,0,0,0],"split_type":[0,0,0,0,0,0,0,0,0],"sum_hessian":[1.9684357E1,1.8129883E1,1.5544738E0,1.422823E1,3.9016516E0,2.8349166E0,1.1393314E1,1.3605036E0,2.5411482E0],"tree_param":{"num_deleted":"0","num_feature":"4","num_nodes":"9","size_leaf_vector":"1"}},{"base_weights":[2.5371447E-2,1.1867787E-1,-7.057374E-2,-1.6191052E-1,5.2015024E-1,1.9687414E-2,-7.490552E-2,-2.906166E-2,9.2101686E-2],"categories":[],"categories_nodes":[],"categories_segments":[],"categories_sizes":[],"default_left":[0,0,0,0,0,0,0,0,0],"id":15,"left_children":[1,3,-1,5,7,-1,-1,-1,-1],"loss_changes":[1.4907615E0,2.2411087E0,0E0,2.6823053E0,2.9048467E0,0E0,0E0,0E0,0E0],"parents":[2147483647,0,0,1,1,3,3,4,4],"right_children":[2,4,-1,6,8,-1,-1,-1,-1],"split_conditions":[1.7354323E0,5.5237366E1,-7.057374E-2,4.3895042E1,5.695359E-1,1.9687414E-2,-7.490552E-2,-2.906166E-2,9.2101686E-2],"split_indices":[0,1,0,1,3,0,0,0,0],"split_type":[0,0,0,0,0,0,0,0,0],"sum_hessian":[1.9625404E1,1.8147089E1,1.478315E0,1.1032913E1,7.1141768E0,7.260782E0,3.772131E0,2.4447045E0,4.6694717E0],"tree_param":{"num_deleted":"0","num_feature":"4","num_nodes":"9","size_leaf_vector":"1"}},{"base_weights":[1.8899083E-2,2.1714512E-1,-3.109535E-1,-8.5214406E-2,4.7359645E-1,6.1144628E-2,-5.688418E-1,2.7174255E-2,-3.3312324E-2,8.1131265E-2,-1.4737089E-2,-9.312722E-2,2.8172651E-2],"categories":[],"categories_nodes":[],"categories_segments":[],"categories_sizes":[],"default_left":[0,0,0,0,0,0,0,0,0,0,0,0,0],"id":16,"left_children":[1,3,5,7,9,-1,11,-1,-1,-1,-1,-1,-1],"loss_changes":[1.4132507E0,1.0827193E0,2.2833219E0,7.114534E-1,1.6768925E0,0E0,2.3823009E0,0E0,0E0,0E0,0E0,0E0,0E0],"parents":[2147483647,0,0,1,1,2,2,3,3,4,4,6,6],"right_children":[2,4,6,8,10,-1,12,-1,-1,-1,-1,-1,-1],"split_conditions":[1.0103105E0,6.0091186E-1,5.236653E-1,5.295708E-1,6.626736E-1,6.1144628E-2,6.60868E-1,2.7174255E-2,-3.3312324E-2,8.1131265E-2,-1.4737089E-2,-9.312722E-2,2.8172651E-2],"split_indices":[2,3,3,3,3,0,3,0,0,0,0,0,0],"split_type":[0,0,0,0,0,0,0,0,0,0,0,0,0],"sum_hessian":[1.957942E1,1.2442808E1,7.136612E0,6.016726E0,6.426082E0,1.2597697E0,5.8768425E0,2.4265976E0,3.5901282E0,3.9638126E0,2.4622693E0,4.054375E0,1.822467E0],"tree_param":{"num_deleted":"0","num_feature":"4","num_nodes":"13","size_leaf_vector":"1"}},{"base_weights":[1.883638E-2,1.05889976E-1,-6.8281785E-2,-7.833981E-2,6.485379E-1,-5.9729427E-2,8.357803E-3,1.4544285E-2,1.0944378E-1],"categories":[],"categories_nodes":[],"categories_segments":[],"categories_sizes":[],"default_left":[0,0,0,0,0,0,0,0,0],"id":17,"left_children":[1,3,-1,5,7,-1,-1,-1,-1],"loss_changes":[1.3217237E0,1.9565696E0,0E0,1.3207288E0,9.488683E-1,0E0,0E0,0E0,0E0],"parents":[2147483647,0,0,1,1,3,3,4,4],"right_children":[2,4,-1,6,8,-1,-1,-1,-1],"split_conditions":[1.7354323E0,1.6755284E0,-6.8281785E-2,9.092307E-1,4.7288445E1,-5.9729427E-2,8.357803E-3,1.4544285E-2,1.0944378E-1],"split_indices":[0,0,0,2,1,0,0,0,0],"split_type":[0,0,0,0,0,0,0,0,0],"sum_hessian":[1.9454962E1,1.8062988E1,1.3919734E0,1.412363E1,3.9393594E0,2.7192929E0,1.1404336E1,2.4740942E0,1.4652653E0],"tree_param":{"num_deleted":"0","num_feature":"4","num_nodes":"9","size_leaf_vector":"1"}},{"base_weights":[1.6768659E-2,2.4132802E-1,-2.5999022E-1,6.7662126E-1,5.0623372E-2,-4.3623525E-1,5.3780343E-2,1.0500751E-2,9.874662E-2,-4.605019E-2,3.7770208E-2,1.3022574E-2,-7.37189E-2],"categories":[],"categories_nodes":[],"categories_segments":[],"categories_sizes":[],"default_left":[0,0,0,0,0,0,0,0,0,0,0,0,0],"id":18,"left_children":[1,3,5,7,9,11,-1,-1,-1,-1,-1,-1,-1],"loss_changes":[1.3306468E0,9.4374096E-1,1.5872233E0,5.1965606E-1,1.7241919E0,1.5333592E0,0E0,0E0,0E0,0E0,0E0,0E0,0E0],"parents":[2147483647,0,0,1,1,2,2,3,3,4,4,5,5],"right_children":[2,4,6,8,10,12,-1,-1,-1,-1,-1,-1,-1],"split_conditions":[9.8081475E-1,3.477574E1,7.3551285E1,5.9922576E-1,5.1583157E1,1.5281297E0,5.3780343E-2,1.0500751E-2,9.874662E-2,-4.605019E-2,3.7770208E-2,1.3022574E-2,-7.37189E-2],"split_indices":[2,1,1,3,1,0,0,0,0,0,0,0,0],"split_type":[0,0,0,0,0,0,0,0,0,0,0,0,0],"sum_hessian":[1.9401102E1,1.0781291E1,8.61981E0,2.5081964E0,8.273095E0,7.431315E0,1.1884954E0,1.354752E0,1.1534444E0,3.069098E0,5.203997E0,2.7751544E0,4.6561604E0],"tree_param":{"num_deleted":"0","num_feature":"4","num_nodes":"13","size_leaf_vector":"1"}},{"base_weights":[1.9124717E-2,1.0158045E-1,-6.625152E-2,-7.331813E-2,6.103716E-1,-1.8365769E-2,7.321986E-2,1.3967051E-2,1.0157591E-1],"categories":[],"categories_nodes":[],"categories_segments":[],"categories_sizes":[],"default_left":[0,0,0,0,0,0,0,0,0],"id":19,"left_children":[1,3,-1,5,7,-1,-1,-1,-1],"loss_changes":[1.2028481E0,1.7257564E0,0E0,1.4633032E0,8.007083E-1,0E0,0E0,0E0,0E0],"parents":[2147483647,0,0,1,1,3,3,4,4],"right_children":[2,4,-1,6,8,-1,-1,-1,-1],"split_conditions":[1.7354323E0,1.6755284E0,-6.625152E-2,7.3551285E1,4.7288445E1,-1.8365769E-2,7.321986E-2,1.3967051E-2,1.0157591E-1],"split_indices":[0,0,0,1,1,0,0,0,0],"split_type":[0,0,0,0,0,0,0,0,0],"sum_hessian":[1.9203667E1,1.7890488E1,1.3131772E0,1.3950766E1,3.9397228E0,1.2949013E1,1.0017533E0,2.4451551E0,1.4945679E0],"tree_param":{"num_deleted":"0","num_feature":"4","num_nodes":"9","size_leaf_vector":"1"}},{"base_weights":[2.2169312E-2,2.3070219E-1,-2.4208069E-1,3.7153748E-1,-2.954933E-2,2.5498194E-1,-5.1918685E-1,8.675459E-3,8.3627276E-2,-1.5537192E-2,7.204777E-2,-7.024851E-2,1.9473953E-2],"categories":[],"categories_nodes":[],"categories_segments":[],"categories_sizes":[],"default_left":[0,0,0,0,0,0,0,0,0,0,0,0,0],"id":20,"left_children":[1,3,5,7,-1,9,11,-1,-1,-1,-1,-1,-1],"loss_changes":[1.162558E0,9.7960305E-1,1.4197481E0,1.2115128E0,0E0,8.7908745E-1,9.651948E-1,0E0,0E0,0E0,0E0,0E0,0E0],"parents":[2147483647,0,0,1,1,2,2,3,3,5,5,6,6],"right_children":[2,4,6,8,-1,10,12,-1,-1,-1,-1,-1,-1],"split_conditions":[9.8081475E-1,6.2287838E1,1.530979E0,5.3841698E1,-2.954933E-2,1.5234956E0,7.341167E1,8.675459E-3,8.3627276E-2,-1.5537192E-2,7.204777E-2,-7.024851E-2,1.9473953E-2],"split_indices":[2,1,0,1,0,0,1,0,0,0,0,0,0],"split_type":[0,0,0,0,0,0,0,0,0,0,0,0,0],"sum_hessian":[1.9083717E1,1.0737318E1,8.346399E0,8.7021265E0,2.035191E0,3.0160904E0,5.330309E0,6.131506E0,2.5706208E0,1.9570724E0,1.0590179E0,4.254107E0,1.0762019E0],"tree_param":{"num_deleted":"0","num_feature":"4","num_nodes":"13","size_leaf_vector":"1"}},{"base_weights":[2.2876533E-2,1.01275004E-1,-6.424003E-2,-6.607749E-2,5.795183E-1,-1.711079E-2,6.7901306E-2,9.7976E-2,1.4088671E-2],"categories":[],"categories_nodes":[],"categories_segments":[],"categories_sizes":[],"default_left":[0,0,0,0,0,0,0,0,0],"id":21,"left_children":[1,3,-1,5,7,-1,-1,-1,-1],"loss_changes":[1.1046196E0,1.5344813E0,0E0,1.2701527E0,7.3067725E-1,0E0,0E0,0E0,0E0],"parents":[2147483647,0,0,1,1,3,3,4,4],"right_children":[2,4,-1,6,8,-1,-1,-1,-1],"split_conditions":[1.7354323E0,1.6755284E0,-6.424003E-2,7.3551285E1,9.061716E-1,-1.711079E-2,6.7901306E-2,9.7976E-2,1.4088671E-2],"split_indices":[0,0,0,1,2,0,0,0,0],"split_type":[0,0,0,0,0,0,0,0,0],"sum_hessian":[1.8931488E1,1.7694122E1,1.2373652E0,1.3745849E1,3.9482749E0,1.2722759E1,1.0230888E0,1.4194158E0,2.5288591E0],"tree_param":{"num_deleted":"0","num_feature":"4","num_nodes":"9","size_leaf_vector":"1"}},{"base_weights":[2.5484337E-2,1.00133754E-1,-6.2364716E-2,-1.3147368E-1,4.1226217E-1,2.059549E-2,-7.169782E-2,-2.8275693E-2,7.407848E-2],"categories":[],"categories_nodes":[],"categories_segments":[],"categories_sizes":[],"default_left":[0,0,0,0,0,0,0,0,0],"id":22,"left_children":[1,3,-1,5,7,-1,-1,-1,-1],"loss_changes":[1.0217444E0,1.4000187E0,0E0,2.4087975E0,2.0752892E0,0E0,0E0,0E0,0E0],"parents":[2147483647,0,0,1,1,3,3,4,4],"right_children":[2,4,-1,6,8,-1,-1,-1,-1],"split_conditions":[1.7354323E0,5.5237366E1,-6.2364716E-2,4.3895042E1,5.695359E-1,2.059549E-2,-7.169782E-2,-2.8275693E-2,7.407848E-2],"split_indices":[0,1,0,1,3,0,0,0,0],"split_type":[0,0,0,0,0,0,0,0,0],"sum_hessian":[1.879674E1,1.7616592E1,1.1801472E0,1.0444951E1,7.1716423E0,7.037472E0,3.407479E0,2.3465703E0,4.8250723E0],"tree_param":{"num_deleted":"0","num_feature":"4","num_nodes":"9","size_leaf_vector":"1"}},{"base_weights":[1.8911548E-2,2.0333725E-1,-2.222619E-1,-2.3566662E-1,3.7134412E-1,2.4984191E-1,-4.9700513E-1,2.8460309E-2,-7.2834454E-2,8.594877E-2,8.813217E-3,-1.5923189E-2,6.434873E-2,-7.1385376E-2,1.5682507E-2],"categories":[],"categories_nodes":[],"categories_segments":[],"categories_sizes":[],"default_left":[0,0,0,0,0,0,0,0,0,0,0,0,0,0,0],"id":23,"left_children":[1,3,5,7,9,11,13,-1,-1,-1,-1,-1,-1,-1,-1],"loss_changes":[9.228427E-1,9.50727E-1,1.2952025E0,1.1944178E0,1.1481084E0,7.4444175E-1,9.685335E-1,0E0,0E0,0E0,0E0,0E0,0E0,0E0,0E0],"parents":[2147483647,0,0,1,1,2,2,3,3,4,4,5,5,6,6],"right_children":[2,4,6,8,10,12,14,-1,-1,-1,-1,-1,-1,-1,-1],"split_conditions":[9.8081475E-1,1.5232444E0,1.530979E0,1.4955857E0,3.477574E1,1.0735803E0,6.600195E-1,2.8460309E-2,-7.2834454E-2,8.594877E-2,8.813217E-3,-1.5923189E-2,6.434873E-2,-7.1385376E-2,1.5682507E-2],"split_indices":[2,0,0,0,1,2,3,0,0,0,0,0,0,0,0],"split_type":[0,0,0,0,0,0,0,0,0,0,0,0,0,0,0],"sum_hessian":[1.8731937E1,1.07036915E1,8.028246E0,2.8510764E0,7.852615E0,2.986699E0,5.0415463E0,1.592123E0,1.2589533E0,2.1360822E0,5.7165327E0,1.7566713E0,1.2300279E0,3.7169755E0,1.324571E0],"tree_param":{"num_deleted":"0","num_feature":"4","num_nodes":"15","size_leaf_vector":"1"}},{"base_weights":[1.8612975E-2,8.795492E-2,-6.0018875E-2,-1.396513E-1,3.9584678E-1,5.499628E-2,-3.8399994E-2,-4.4921115E-2,6.375324E-2],"categories":[],"categories_nodes":[],"categories_segments":[],"categories_sizes":[],"default_left":[0,0,0,0,0,0,0,0,0],"id":24,"left_children":[1,3,-1,5,7,-1,-1,-1,-1],"loss_changes":[8.9542246E-1,1.3539027E0,0E0,2.1311293E0,1.9483086E0,0E0,0E0,0E0,0E0],"parents":[2147483647,0,0,1,1,3,3,4,4],"right_children":[2,4,-1,6,8,-1,-1,-1,-1],"split_conditions":[1.7354323E0,5.5237366E1,-6.0018875E-2,5.295708E-1,9.056263E-1,5.499628E-2,-3.8399994E-2,-4.4921115E-2,6.375324E-2],"split_indices":[0,1,0,3,2,0,0,0,0],"split_type":[0,0,0,0,0,0,0,0,0],"sum_hessian":[1.863771E1,1.7531069E1,1.1066418E0,1.0393901E1,7.1371684E0,2.3920882E0,8.001813E0,1.3963053E0,5.7408633E0],"tree_param":{"num_deleted":"0","num_feature":"4","num_nodes":"9","size_leaf_vector":"1"}},{"base_weights":[1.491934E-2,-1.8069014E-1,2.4368437E-1,3.0400392E-1,-5.1163924E-1,8.103063E-2,3.1305256E-3,-3.5011824E-2,6.718492E-2,-1.871745E-2,-8.0924205E-2,-5.547216E-2,5.4102715E-2],"categories":[],"categories_nodes":[],"categories_segments":[],"categories_sizes":[],"default_left":[0,0,0,0,0,0,0,0,0,0,0,0,0],"id":25,"left_children":[1,3,5,7,9,-1,11,-1,-1,-1,-1,-1,-1],"loss_changes":[9.206192E-1,1.94154E0,1.2862267E0,1.4731805E0,5.234084E-1,0E0,2.5929892E0,0E0,0E0,0E0,0E0,0E0,0E0],"parents":[2147483647,0,0,1,1,2,2,3,3,4,4,6,6],"right_children":[2,4,6,8,10,-1,12,-1,-1,-1,-1,-1,-1],"split_conditions":[6.1598843E-1,5.295708E-1,1.4955857E0,5.138758E-1,9.806482E-1,8.103063E-2,1.6330955E0,-3.5011824E-2,6.718492E-2,-1.871745E-2,-8.0924205E-2,-5.547216E-2,5.4102715E-2],"split_indices":[3,3,0,3,2,0,0,0,0,0,0,0,0],"split_type":[0,0,0,0,0,0,0,0,0,0,0,0,0],"sum_hessian":[1.8589165E1,1.0134034E1,8.455131E0,4.1449428E0,5.989091E0,1.8139317E0,6.641199E0,1.5092696E0,2.6356733E0,3.6445363E0,2.3445547E0,3.2447708E0,3.396428E0],"tree_param":{"num_deleted":"0","num_feature":"4","num_nodes":"13","size_leaf_vector":"1"}},{"base_weights":[1.3287717E-2,8.031267E-2,-5.8914553E-2,-7.343727E-2,5.123805E-1,-5.6596786E-2,7.973599E-3,6.871319E-3,9.195479E-2],"categories":[],"categories_nodes":[],"categories_segments":[],"categories_sizes":[],"default_left":[0,0,0,0,0,0,0,0,0],"id":26,"left_children":[1,3,-1,5,7,-1,-1,-1,-1],"loss_changes":[8.341363E-1,1.2609724E0,0E0,1.1357913E0,8.325623E-1,0E0,0E0,0E0,0E0],"parents":[2147483647,0,0,1,1,3,3,4,4],"right_children":[2,4,-1,6,8,-1,-1,-1,-1],"split_conditions":[1.7354323E0,1.6755284E0,-5.8914553E-2,9.092307E-1,4.7288445E1,-5.6596786E-2,7.973599E-3,6.871319E-3,9.195479E-2],"split_indices":[0,0,0,2,1,0,0,0,0],"split_type":[0,0,0,0,0,0,0,0,0],"sum_hessian":[1.8486336E1,1.7415434E1,1.0709035E0,1.3456879E1,3.9585543E0,2.5529342E0,1.0903945E1,2.4536786E0,1.5048755E0],"tree_param":{"num_deleted":"0","num_feature":"4","num_nodes":"9","size_leaf_vector":"1"}},{"base_weights":[1.1246349E-2,1.8844487E-1,-2.2094002E-1,7.865479E-2,5.5830993E-2,-4.816717E-1,2.4640551E-1,-1.9783992E-2,3.6858775E-2,2.6649151E-2,-7.069394E-2,-4.0468942E-2,8.765409E-2],"categories":[],"categories_nodes":[],"categories_segments":[],"categories_sizes":[],"default_left":[0,0,0,0,0,0,0,0,0,0,0,0,0],"id":27,"left_children":[1,3,5,-1,7,9,11,-1,-1,-1,-1,-1,-1],"loss_changes":[8.4064853E-1,8.725219E-1,1.1990535E0,0E0,9.086312E-1,1.204601E0,1.9288214E0,0E0,0E0,0E0,0E0,0E0,0E0],"parents":[2147483647,0,0,1,1,2,2,4,4,5,5,6,6],"right_children":[2,4,6,-1,8,10,12,-1,-1,-1,-1,-1,-1],"split_conditions":[9.8081475E-1,2.5635366E1,5.862964E1,7.865479E-2,1.632332E0,5.236653E-1,6.0786265E-1,-1.9783992E-2,3.6858775E-2,2.6649151E-2,-7.069394E-2,-4.0468942E-2,8.765409E-2],"split_indices":[2,1,1,0,0,3,3,0,0,0,0,0,0],"split_type":[0,0,0,0,0,0,0,0,0,0,0,0,0],"sum_hessian":[1.842036E1,1.0554122E1,7.866238E0,1.0204895E0,9.533633E0,5.0295835E0,2.8366544E0,5.466938E0,4.066695E0,1.1215785E0,3.908005E0,1.5710855E0,1.265569E0],"tree_param":{"num_deleted":"0","num_feature":"4","num_nodes":"13","size_leaf_vector":"1"}},{"base_weights":[1.4698221E-2,-6.2165592E-2,5.3146917E-2,1.4463924E-1,-3.5995334E-1,2.9568115E-2,-5.0757326E-2,1.2750271E-2,-6.640356E-2],"categories":[],"categories_nodes":[],"categories_segments":[],"categories_sizes":[],"default_left":[0,0,0,0,0,0,0,0,0],"id":28,"left_children":[1,3,-1,5,7,-1,-1,-1,-1],"loss_changes":[7.973407E-1,1.1387501E0,0E0,1.2462167E0,1.1991262E0,0E0,0E0,0E0,0E0],"parents":[2147483647,0,0,1,1,3,3,4,4],"right_children":[2,4,-1,6,8,-1,-1,-1,-1],"split_conditions":[7.3551285E1,9.8081475E-1,5.3146917E-2,6.2287838E1,1.5281297E0,2.9568115E-2,-5.0757326E-2,1.2750271E-2,-6.640356E-2],"split_indices":[1,2,0,1,0,0,0,0,0],"split_type":[0,0,0,0,0,0,0,0,0],"sum_hessian":[1.824176E1,1.6645617E1,1.5961429E0,1.0127001E1,6.518616E0,8.666604E0,1.460397E0,2.7273157E0,3.7913005E0],"tree_param":{"num_deleted":"0","num_feature":"4","num_nodes":"9","size_leaf_vector":"1"}},{"base_weights":[1.1642486E-2,-1.7336813E-1,2.2610506E-1,2.7836546E-1,-4.9464145E-1,7.4428216E-2,-2.9048433E-3,-3.340105E-2,6.1117586E-2,-2.0442547E-2,-7.716043E-2,-5.204254E-2,4.7452737E-2],"categories":[],"categories_nodes":[],"categories_segments":[],"categories_sizes":[],"default_left":[0,0,0,0,0,0,0,0,0,0,0,0,0],"id":29,"left_children":[1,3,5,7,9,-1,11,-1,-1,-1,-1,-1,-1],"loss_changes":[7.9900634E-1,1.7118605E0,1.1061009E0,1.2533096E0,3.8070023E-1,0E0,2.0871222E0,0E0,0E0,0E0,0E0,0E0,0E0],"parents":[2147483647,0,0,1,1,2,2,3,3,4,4,6,6],"right_children":[2,4,6,8,10,-1,12,-1,-1,-1,-1,-1,-1],"split_conditions":[6.1598843E-1,5.295708E-1,1.4955857E0,5.138758E-1,9.806482E-1,7.4428216E-2,1.6330955E0,-3.340105E-2,6.1117586E-2,-2.0442547E-2,-7.716043E-2,-5.204254E-2,4.7452737E-2],"split_indices":[3,3,0,3,2,0,0,0,0,0,0,0,0],"split_type":[0,0,0,0,0,0,0,0,0,0,0,0,0],"sum_hessian":[1.8149397E1,9.84662E0,8.302776E0,4.1479115E0,5.6987085E0,1.8551525E0,6.4476237E0,1.4592551E0,2.6886566E0,3.6315155E0,2.0671928E0,3.0507078E0,3.3969162E0],"tree_param":{"num_deleted":"0","num_feature":"4","num_nodes":"13","size_leaf_vector":"1"}},{"base_weights":[9.846172E-3,7.72236E-2,-5.8627464E-2,-1.5936699E-2,7.185542E-2,1.816695E-2,-3.134798E-2],"categories":[],"categories_nodes":[],"categories_segments":[],"categories_sizes":[],"default_left":[0,0,0,0,0,0,0],"id":30,"left_children":[1,3,-1,5,-1,-1,-1],"loss_changes":[8.1014776E-1,1.0864733E0,0E0,1.038212E0,0E0,0E0,0E0],"parents":[2147483647,0,0,1,1,3,3],"right_children":[2,4,-1,6,-1,-1,-1],"split_conditions":[1.7354323E0,7.3551285E1,-5.8627464E-2,9.8081475E-1,7.185542E-2,1.816695E-2,-3.134798E-2],"split_indices":[0,1,0,2,0,0,0],"split_type":[0,0,0,0,0,0,0],"sum_hessian":[1.8043245E1,1.699304E1,1.0502067E0,1.5689167E1,1.3038728E0,9.661887E0,6.027279E0],"tree_param":{"num_deleted":"0","num_feature":"4","num_nodes":"7","size_leaf_vector":"1"}},{"base_weights":[8.669761E-3,7.2792776E-2,-5.6964178E-2,-6.53439E-2,4.5194107E-1,-5.541819E-2,8.812259E-3,2.2494586E-3,8.647959E-2],"categories":[],"categories_nodes":[],"categories_segments":[],"categories_sizes":[],"default_left":[0,0,0,0,0,0,0,0,0],"id":31,"left_children":[1,3,-1,5,7,-1,-1,-1,-1],"loss_changes":[7.4404126E-1,9.692116E-1,0E0,1.1009308E0,8.524122E-1,0E0,0E0,0E0,0E0],"parents":[2147483647,0,0,1,1,3,3,4,4],"right_children":[2,4,-1,6,8,-1,-1,-1,-1],"split_conditions":[1.7354323E0,1.6755284E0,-5.6964178E-2,9.092307E-1,4.7288445E1,-5.541819E-2,8.812259E-3,2.2494586E-3,8.647959E-2],"split_indices":[0,0,0,2,1,0,0,0,0],"split_type":[0,0,0,0,0,0,0,0,0],"sum_hessian":[1.7945986E1,1.6941631E1,1.0043545E0,1.3024146E1,3.917485E0,2.4880013E0,1.0536144E1,2.4370162E0,1.4804689E0],"tree_param":{"num_deleted":"0","num_feature":"4","num_nodes":"9","size_leaf_vector":"1"}},{"base_weights":[6.7788954E-3,-1.7005682E-1,2.1069595E-1,2.5834295E-1,-4.823724E-1,4.029532E-1,-3.037468E-2,6.429315E-2,-2.2891454E-2,-2.0723686E-2,-7.505265E-2,-2.0360714E-2,5.823329E-2],"categories":[],"categories_nodes":[],"categories_segments":[],"categories_sizes":[],"default_left":[0,0,0,0,0,0,0,0,0,0,0,0,0],"id":32,"left_children":[1,3,5,7,9,11,-1,-1,-1,-1,-1,-1,-1],"loss_changes":[7.1643615E-1,1.5511193E0,1.0335698E0,1.1116278E0,3.2513988E-1,8.9501E-1,0E0,0E0,0E0,0E0,0E0,0E0,0E0],"parents":[2147483647,0,0,1,1,2,2,3,3,4,4,5,5],"right_children":[2,4,6,8,10,12,-1,-1,-1,-1,-1,-1,-1],"split_conditions":[6.1598843E-1,5.295708E-1,7.025688E-1,4.3895042E1,9.806482E-1,9.056263E-1,-3.037468E-2,6.429315E-2,-2.2891454E-2,-2.0723686E-2,-7.505265E-2,-2.0360714E-2,5.823329E-2],"split_indices":[3,3,3,1,2,2,0,0,0,0,0,0,0],"split_type":[0,0,0,0,0,0,0,0,0,0,0,0,0],"sum_hessian":[1.787436E1,9.661773E0,8.212586E0,4.14666E0,5.515113E0,6.1361184E0,2.0764678E0,2.1389294E0,2.0077305E0,3.597144E0,1.9179689E0,1.3696563E0,4.766462E0],"tree_param":{"num_deleted":"0","num_feature":"4","num_nodes":"13","size_leaf_vector":"1"}},{"base_weights":[3.0765554E-3,-7.009227E-2,4.937565E-2,1.0557747E-1,-3.316804E-1,2.3918677E-2,-4.8423648E-2,1.1409759E-2,-6.296271E-2],"categories":[],"categories_nodes":[],"categories_segments":[],"categories_sizes":[],"default_left":[0,0,0,0,0,0,0,0,0],"id":33,"left_children":[1,3,-1,5,7,-1,-1,-1,-1],"loss_changes":[7.1045524E-1,8.280497E-1,0E0,9.8919386E-1,1.0247653E0,0E0,0E0,0E0,0E0],"parents":[2147483647,0,0,1,1,3,3,4,4],"right_children":[2,4,-1,6,8,-1,-1,-1,-1],"split_conditions":[7.3551285E1,9.8081475E-1,4.937565E-2,6.2287838E1,1.5281297E0,2.3918677E-2,-4.8423648E-2,1.1409759E-2,-6.296271E-2],"split_indices":[1,2,0,1,0,0,0,0,0],"split_type":[0,0,0,0,0,0,0,0,0],"sum_hessian":[1.7824518E1,1.625741E1,1.567107E0,1.0082737E1,6.1746736E0,8.705231E0,1.3775065E0,2.7208629E0,3.4538107E0],"tree_param":{"num_deleted":"0","num_feature":"4","num_nodes":"9","size_leaf_vector":"1"}},{"base_weights":[9.42505E-4,-1.6004221E-1,2.1018045E-1,1.2105114E-1,-6.802475E-1,-4.673286E-2,4.118654E-1,5.8076687E-2,-1.4964786E-2,-7.7292435E-2,-2.0313993E-2,8.583002E-2,6.856997E-4],"categories":[],"categories_nodes":[],"categories_segments":[],"categories_sizes":[],"default_left":[0,0,0,0,0,0,0,0,0,0,0,0,0],"id":34,"left_children":[1,3,5,7,9,-1,11,-1,-1,-1,-1,-1,-1],"loss_changes":[6.6446906E-1,1.7130742E0,1.3642976E0,1.0935308E0,2.2649646E-2,0E0,1.285105E0,0E0,0E0,0E0,0E0,0E0,0E0],"parents":[2147483647,0,0,1,1,2,2,3,3,4,4,6,6],"right_children":[2,4,6,8,10,-1,12,-1,-1,-1,-1,-1,-1],"split_conditions":[5.5237366E1,4.3895042E1,9.056263E-1,5.295708E-1,1.6470857E0,-4.673286E-2,1.5525144E0,5.8076687E-2,-1.4964786E-2,-7.7292435E-2,-2.0313993E-2,8.583002E-2,6.856997E-4],"split_indices":[1,1,2,3,0,0,0,0,0,0,0,0,0],"split_type":[0,0,0,0,0,0,0,0,0,0,0,0,0],"sum_hessian":[1.772786E1,1.0152098E1,7.575762E0,7.088904E0,3.0631938E0,1.4357169E0,6.140045E0,2.2027094E0,4.8861947E0,2.045785E0,1.0174088E0,2.3882725E0,3.7517726E0],"tree_param":{"num_deleted":"0","num_feature":"4","num_nodes":"13","size_leaf_vector":"1"}},{"base_weights":[-4.3965952E-4,-1.6990532E-1,1.9457023E-1,2.1376507E-1,-4.592448E-1,3.7063804E-1,-2.883592E-2,-3.1319283E-2,4.8646852E-2,-6.452998E-2,-1.0780173E-2,-1.7768655E-2,5.302888E-2],"categories":[],"categories_nodes":[],"categories_segments":[],"categories_sizes":[],"default_left":[0,0,0,0,0,0,0,0,0,0,0,0,0],"id":35,"left_children":[1,3,5,7,9,11,-1,-1,-1,-1,-1,-1,-1],"loss_changes":[6.487552E-1,1.2640117E0,8.830694E-1,8.99241E-1,3.4268177E-1,7.181488E-1,0E0,0E0,0E0,0E0,0E0,0E0,0E0],"parents":[2147483647,0,0,1,1,2,2,3,3,4,4,5,5],"right_children":[2,4,6,8,10,12,-1,-1,-1,-1,-1,-1,-1],"split_conditions":[6.1598843E-1,5.295708E-1,7.025688E-1,5.138758E-1,5.2227505E1,9.056263E-1,-2.883592E-2,-3.1319283E-2,4.8646852E-2,-6.452998E-2,-1.0780173E-2,-1.7768655E-2,5.302888E-2],"split_indices":[3,3,3,3,1,2,0,0,0,0,0,0,0],"split_type":[0,0,0,0,0,0,0,0,0,0,0,0,0],"sum_hessian":[1.763067E1,9.502036E0,8.128634E0,4.1973953E0,5.304641E0,6.127261E0,2.0013735E0,1.380778E0,2.8166173E0,2.9217265E0,2.382914E0,1.3562424E0,4.771019E0],"tree_param":{"num_deleted":"0","num_feature":"4","num_nodes":"13","size_leaf_vector":"1"}},{"base_weights":[-3.6389022E-3,2.1325171E-1,-1.567838E-1,-6.0529396E-2,5.174189E-1,3.78222E-2,-2.664697E-1,-7.057037E-2,4.2264685E-2,1.1714669E-1,-2.6207233E-2,2.5622716E-2,-4.4049945E-2],"categories":[],"categories_nodes":[],"categories_segments":[],"categories_sizes":[],"default_left":[0,0,0,0,0,0,0,0,0,0,0,0,0],"id":36,"left_children":[1,3,5,7,9,-1,11,-1,-1,-1,-1,-1,-1],"loss_changes":[6.502898E-1,7.066545E-1,7.733767E-1,1.9078324E0,2.3189733E0,0E0,1.0314457E0,0E0,0E0,0E0,0E0,0E0,0E0],"parents":[2147483647,0,0,1,1,2,2,3,3,4,4,6,6],"right_children":[2,4,6,8,10,-1,12,-1,-1,-1,-1,-1,-1],"split_conditions":[9.4713616E-1,9.092307E-1,1.4945091E0,1.605725E0,1.5525144E0,3.78222E-2,5.236653E-1,-7.057037E-2,4.2264685E-2,1.1714669E-1,-2.6207233E-2,2.5622716E-2,-4.4049945E-2],"split_indices":[2,2,0,0,0,0,3,0,0,0,0,0,0],"split_type":[0,0,0,0,0,0,0,0,0,0,0,0,0],"sum_hessian":[1.7571205E1,7.1096787E0,1.0461526E1,4.1632943E0,2.9463844E0,1.3633579E0,9.098167E0,1.5855688E0,2.5777256E0,1.3286731E0,1.6177113E0,2.1545818E0,6.943586E0],"tree_param":{"num_deleted":"0","num_feature":"4","num_nodes":"13","size_leaf_vector":"1"}},{"base_weights":[6.0810725E-4,-6.764606E-2,4.455369E-2,9.775367E-2,-3.1773323E-1,-2.268536E-2,3.4788474E-2,8.539862E-3,-5.9939038E-2],"categories":[],"categories_nodes":[],"categories_segments":[],"categories_sizes":[],"default_left":[0,0,0,0,0,0,0,0,0],"id":37,"left_children":[1,3,-1,5,7,-1,-1,-1,-1],"loss_changes":[5.8901244E-1,7.2696304E-1,0E0,9.632203E-1,8.383472E-1,0E0,0E0,0E0,0E0],"parents":[2147483647,0,0,1,1,3,3,4,4],"right_children":[2,4,-1,6,8,-1,-1,-1,-1],"split_conditions":[7.3551285E1,9.8081475E-1,4.455369E-2,1.605725E0,1.5281297E0,-2.268536E-2,3.4788474E-2,8.539862E-3,-5.9939038E-2],"split_indices":[1,2,0,0,0,0,0,0,0],"split_type":[0,0,0,0,0,0,0,0,0],"sum_hessian":[1.7403227E1,1.58237505E1,1.5794758E0,9.891168E0,5.9325833E0,4.3452225E0,5.545945E0,2.7266986E0,3.2058847E0],"tree_param":{"num_deleted":"0","num_feature":"4","num_nodes":"9","size_leaf_vector":"1"}},{"base_weights":[4.8430674E-4,-1.62777E-1,1.8695077E-1,1.8507303E-1,-4.3389863E-1,-1.3590899E-1,4.6338868E-1,6.761028E-2,-1.0903533E-2,-6.12566E-2,-1.0380651E-2,5.098137E-2,-7.778637E-2,6.528731E-2,-4.1522267E-3],"categories":[],"categories_nodes":[],"categories_segments":[],"categories_sizes":[],"default_left":[0,0,0,0,0,0,0,0,0,0,0,0,0,0,0],"id":38,"left_children":[1,3,5,7,9,11,13,-1,-1,-1,-1,-1,-1,-1,-1],"loss_changes":[5.8671045E-1,1.0495479E0,8.658503E-1,8.250631E-1,2.9467273E-1,2.43713E0,5.124594E-1,0E0,0E0,0E0,0E0,0E0,0E0,0E0,0E0],"parents":[2147483647,0,0,1,1,2,2,3,3,4,4,5,5,6,6],"right_children":[2,4,6,8,10,12,14,-1,-1,-1,-1,-1,-1,-1,-1],"split_conditions":[6.1598843E-1,5.295708E-1,5.5237366E1,9.269232E-1,5.2227505E1,3.477574E1,6.847647E-1,6.761028E-2,-1.0903533E-2,-6.12566E-2,-1.0380651E-2,5.098137E-2,-7.778637E-2,6.528731E-2,-4.1522267E-3],"split_indices":[3,3,1,2,1,1,3,0,0,0,0,0,0,0,0],"split_type":[0,0,0,0,0,0,0,0,0,0,0,0,0,0,0],"sum_hessian":[1.7272953E1,9.277261E0,7.995692E0,4.202639E0,5.0746217E0,3.9226604E0,4.0730314E0,1.0877539E0,3.1148853E0,2.7372832E0,2.3373382E0,2.0582106E0,1.8644497E0,2.7485154E0,1.3245159E0],"tree_param":{"num_deleted":"0","num_feature":"4","num_nodes":"15","size_leaf_vector":"1"}},{"base_weights":[9.4256963E-4,-6.356503E-2,4.117915E-2,4.0694326E-2,-1.3544984E-1,4.1758385E-2,-2.6322523E-2],"categories":[],"categories_nodes":[],"categories_segments":[],"categories_sizes":[],"default_left":[0,0,0,0,0,0,0],"id":39,"left_children":[1,3,-1,-1,5,-1,-1],"loss_changes":[5.063456E-1,6.140459E-1,0E0,0E0,1.1759173E0,0E0,0E0],"parents":[2147483647,0,0,1,1,4,4],"right_children":[2,4,-1,-1,6,-1,-1],"split_conditions":[7.3551285E1,2.4992838E1,4.117915E-2,4.0694326E-2,1.4955857E0,4.1758385E-2,-2.6322523E-2],"split_indices":[1,1,0,0,0,0,0],"split_type":[0,0,0,0,0,0,0],"sum_hessian":[1.7117659E1,1.5525307E1,1.5923525E0,1.4398696E0,1.4085438E1,2.2178962E0,1.1867541E1],"tree_param":{"num_deleted":"0","num_feature":"4","num_nodes":"7","size_leaf_vector":"1"}},{"base_weights":[6.0520563E-3,-2.6435447E-1,1.1318136E-1,2.659864E-1,-8.117295E-2,6.7452125E-2,-6.655634E-2,-2.7383491E-2,6.558638E-2,-6.9658116E-2,1.12093715E-2],"categories":[],"categories_nodes":[],"categories_segments":[],"categories_sizes":[],"default_left":[0,0,0,0,0,0,0,0,0,0,0],"id":40,"left_children":[1,3,5,7,-1,-1,9,-1,-1,-1,-1],"loss_changes":[5.523961E-1,1.7886369E0,1.4189026E0,9.172438E-1,0E0,0E0,1.3415687E0,0E0,0E0,0E0,0E0],"parents":[2147483647,0,0,1,1,2,2,3,3,6,6],"right_children":[2,4,6,8,-1,-1,10,-1,-1,-1,-1],"split_conditions":[1.5234956E0,1.4955857E0,1.5525144E0,6.4065206E-1,-8.117295E-2,6.7452125E-2,1.6096389E0,-2.7383491E-2,6.558638E-2,-6.9658116E-2,1.12093715E-2],"split_indices":[0,0,0,3,0,0,0,0,0,0,0],"split_type":[0,0,0,0,0,0,0,0,0,0,0],"sum_hessian":[1.7036032E1,4.417681E0,1.261835E1,2.5048504E0,1.9128308E0,2.392745E0,1.0225605E1,1.1752485E0,1.3296018E0,1.6185416E0,8.607063E0],"tree_param":{"num_deleted":"0","num_feature":"4","num_nodes":"11","size_leaf_vector":"1"}},{"base_weights":[3.0199308E-3,-2.513691E-1,1.0203129E-1,2.5030145E-1,-7.859968E-2,6.1488718E-2,-6.5688916E-2,-2.6129633E-2,6.143392E-2,-6.770875E-2,1.0164193E-2],"categories":[],"categories_nodes":[],"categories_segments":[],"categories_sizes":[],"default_left":[0,0,0,0,0,0,0,0,0,0,0],"id":41,"left_children":[1,3,5,7,-1,-1,9,-1,-1,-1,-1],"loss_changes":[4.7773248E-1,1.6229001E0,1.2129184E0,8.126881E-1,0E0,0E0,1.2121515E0,0E0,0E0,0E0,0E0],"parents":[2147483647,0,0,1,1,2,2,3,3,6,6],"right_children":[2,4,6,8,-1,-1,10,-1,-1,-1,-1],"split_conditions":[1.5234956E0,1.4955857E0,1.5525144E0,6.4065206E-1,-7.859968E-2,6.1488718E-2,1.6096389E0,-2.6129633E-2,6.143392E-2,-6.770875E-2,1.0164193E-2],"split_indices":[0,0,0,3,0,0,0,0,0,0,0],"split_type":[0,0,0,0,0,0,0,0,0,0,0],"sum_hessian":[1.6948854E1,4.317402E0,1.2631453E1,2.5017207E0,1.815681E0,2.455835E0,1.0175617E1,1.1574018E0,1.344319E0,1.5319029E0,8.643714E0],"tree_param":{"num_deleted":"0","num_feature":"4","num_nodes":"11","size_leaf_vector":"1"}},{"base_weights":[2.9160412E-5,-1.4682779E-1,1.6740264E-1,1.9168936E-1,-4.1489595E-1,-1.19618215E-1,4.0680045E-1,6.6143915E-2,-9.700726E-3,-1.5312756E-2,-6.992219E-2,4.7744744E-2,-7.466872E-2,3.1340562E-3,6.369486E-2],"categories":[],"categories_nodes":[],"categories_segments":[],"categories_sizes":[],"default_left":[0,0,0,0,0,0,0,0,0,0,0,0,0,0,0],"id":42,"left_children":[1,3,5,7,9,11,13,-1,-1,-1,-1,-1,-1,-1,-1],"loss_changes":[4.636025E-1,9.9119246E-1,6.543369E-1,7.5902414E-1,3.3373237E-1,2.1466656E0,4.149711E-1,0E0,0E0,0E0,0E0,0E0,0E0,0E0,0E0],"parents":[2147483647,0,0,1,1,2,2,3,3,4,4,5,5,6,6],"right_children":[2,4,6,8,10,12,14,-1,-1,-1,-1,-1,-1,-1,-1],"split_conditions":[6.1598843E-1,5.295708E-1,5.5237366E1,9.269232E-1,9.806482E-1,3.477574E1,9.550707E-1,6.6143915E-2,-9.700726E-3,-1.5312756E-2,-6.992219E-2,4.7744744E-2,-7.466872E-2,3.1340562E-3,6.369486E-2],"split_indices":[3,3,1,2,2,1,2,0,0,0,0,0,0,0,0],"split_type":[0,0,0,0,0,0,0,0,0,0,0,0,0,0,0],"sum_hessian":[1.686102E1,9.046333E0,7.8146863E0,4.123761E0,4.9225726E0,3.7813978E0,4.0332885E0,1.0782217E0,3.0455396E0,3.364013E0,1.5585594E0,2.059266E0,1.7221317E0,1.9645423E0,2.068746E0],"tree_param":{"num_deleted":"0","num_feature":"4","num_nodes":"15","size_leaf_vector":"1"}},{"base_weights":[1.45092E-4,1.774861E-1,-1.2913485E-1,5.8304735E-2,-1.7049046E-2,-5.084332E-1,4.4887904E-2,-4.537641E-2,3.3394694E-2,-7.495481E-2,-4.4670078E-4,5.024555E-2,-1.7545978E-2],"categories":[],"categories_nodes":[],"categories_segments":[],"categories_sizes":[],"default_left":[0,0,0,0,0,0,0,0,0,0,0,0,0],"id":43,"left_children":[1,3,5,-1,7,9,11,-1,-1,-1,-1,-1,-1],"loss_changes":[4.2935404E-1,6.328716E-1,7.378055E-1,0E0,1.1184032E0,4.204737E-1,9.2945063E-1,0E0,0E0,0E0,0E0,0E0,0E0],"parents":[2147483647,0,0,1,1,2,2,4,4,5,5,6,6],"right_children":[2,4,6,-1,8,10,12,-1,-1,-1,-1,-1,-1],"split_conditions":[9.4713616E-1,5.445057E-1,9.7181326E-1,5.8304735E-2,9.056263E-1,5.3841698E1,1.0103105E0,-4.537641E-2,3.3394694E-2,-7.495481E-2,-4.4670078E-4,5.024555E-2,-1.7545978E-2],"split_indices":[2,3,2,0,2,1,2,0,0,0,0,0,0],"split_type":[0,0,0,0,0,0,0,0,0,0,0,0,0],"sum_hessian":[1.672761E1,6.8956084E0,9.832001E0,1.5879552E0,5.307653E0,2.487852E0,7.344148E0,2.2345717E0,3.0730815E0,1.353157E0,1.1346952E0,1.9709812E0,5.373167E0],"tree_param":{"num_deleted":"0","num_feature":"4","num_nodes":"13","size_leaf_vector":"1"}},{"base_weights":[3.0584783E-6,-1.3985533E-1,1.595861E-1,1.7780484E-1,-3.9804357E-1,5.3159613E-2,-2.2324625E-2,4.8860632E-2,-2.3481138E-2,-1.4728597E-2,-6.767098E-2,-6.080822E-2,1.8869657E-2],"categories":[],"categories_nodes":[],"categories_segments":[],"categories_sizes":[],"default_left":[0,0,0,0,0,0,0,0,0,0,0,0,0],"id":44,"left_children":[1,3,5,7,9,-1,11,-1,-1,-1,-1,-1,-1],"loss_changes":[4.1629815E-1,8.860486E-1,6.014145E-1,7.749354E-1,3.0508155E-1,0E0,9.56565E-1,0E0,0E0,0E0,0E0,0E0,0E0],"parents":[2147483647,0,0,1,1,2,2,3,3,4,4,6,6],"right_children":[2,4,6,8,10,-1,12,-1,-1,-1,-1,-1,-1],"split_conditions":[6.1598843E-1,5.295708E-1,6.3419384E-1,4.3895042E1,9.806482E-1,5.3159613E-2,6.4672965E-1,4.8860632E-2,-2.3481138E-2,-1.4728597E-2,-6.767098E-2,-6.080822E-2,1.8869657E-2],"split_indices":[3,3,3,1,2,0,3,0,0,0,0,0,0],"split_type":[0,0,0,0,0,0,0,0,0,0,0,0,0],"sum_hessian":[1.6652166E1,8.940417E0,7.7117496E0,4.14813E0,4.792287E0,1.9012913E0,5.810458E0,2.2609286E0,1.8872014E0,3.3270144E0,1.4652727E0,1.0405258E0,4.7699323E0],"tree_param":{"num_deleted":"0","num_feature":"4","num_nodes":"13","size_leaf_vector":"1"}},{"base_weights":[-2.9275436E-3,-6.324809E-2,3.77195E-2,7.928634E-2,-2.8335676E-1,6.586107E-2,-5.3827977E-3,9.159743E-3,-5.607325E-2],"categories":[],"categories_nodes":[],"categories_segments":[],"categories_sizes":[],"default_left":[0,0,0,0,0,0,0,0,0],"id":45,"left_children":[1,3,-1,5,7,-1,-1,-1,-1],"loss_changes":[4.2643318E-1,5.247242E-1,0E0,8.450395E-1,7.2852093E-1,0E0,0E0,0E0,0E0],"parents":[2147483647,0,0,1,1,3,3,4,4],"right_children":[2,4,-1,6,8,-1,-1,-1,-1],"split_conditions":[7.3551285E1,9.8081475E-1,3.77195E-2,2.5635366E1,1.5281297E0,6.586107E-2,-5.3827977E-3,9.159743E-3,-5.607325E-2],"split_indices":[1,2,0,1,0,0,0,0,0],"split_type":[0,0,0,0,0,0,0,0,0],"sum_hessian":[1.6557367E1,1.5009211E1,1.5481569E0,9.498263E0,5.510947E0,1.0370836E0,8.46118E0,2.6280894E0,2.8828578E0],"tree_param":{"num_deleted":"0","num_feature":"4","num_nodes":"9","size_leaf_vector":"1"}},{"base_weights":[2.0750289E-5,-2.4452537E-1,9.4514154E-2,2.3507021E-1,-7.613091E-2,5.6510754E-2,-6.2499467E-2,-2.4755662E-2,5.6703683E-2,-6.532398E-2,9.453145E-3],"categories":[],"categories_nodes":[],"categories_segments":[],"categories_sizes":[],"default_left":[0,0,0,0,0,0,0,0,0,0,0],"id":46,"left_children":[1,3,5,7,-1,-1,9,-1,-1,-1,-1],"loss_changes":[4.2642874E-1,1.4537003E0,1.0188148E0,6.9018376E-1,0E0,0E0,1.071104E0,0E0,0E0,0E0,0E0],"parents":[2147483647,0,0,1,1,2,2,3,3,6,6],"right_children":[2,4,6,8,-1,-1,10,-1,-1,-1,-1],"split_conditions":[1.5234956E0,1.4955857E0,1.5525144E0,6.4065206E-1,-7.613091E-2,5.6510754E-2,1.6096389E0,-2.4755662E-2,5.6703683E-2,-6.532398E-2,9.453145E-3],"split_indices":[0,0,0,3,0,0,0,0,0,0,0],"split_type":[0,0,0,0,0,0,0,0,0,0,0],"sum_hessian":[1.6453596E1,4.1432467E0,1.23103485E1,2.4316802E0,1.7115662E0,2.4295437E0,9.880805E0,1.094591E0,1.3370893E0,1.4113716E0,8.469434E0],"tree_param":{"num_deleted":"0","num_feature":"4","num_nodes":"11","size_leaf_vector":"1"}},{"base_weights":[-2.9233207E-3,6.0659908E-2,-3.257598E-2,-7.5968474E-2,5.2828294E-1,-4.832719E-2,5.1139365E-3,6.1117164E-3,8.595348E-2],"categories":[],"categories_nodes":[],"categories_segments":[],"categories_sizes":[],"default_left":[0,0,0,0,0,0,0,0,0],"id":47,"left_children":[1,3,-1,5,7,-1,-1,-1,-1],"loss_changes":[3.7618196E-1,1.020821E0,0E0,6.849592E-1,5.040128E-1,0E0,0E0,0E0,0E0],"parents":[2147483647,0,0,1,1,3,3,4,4],"right_children":[2,4,-1,6,8,-1,-1,-1,-1],"split_conditions":[1.7168084E0,1.6755284E0,-3.257598E-2,9.092307E-1,4.7288445E1,-4.832719E-2,5.1139365E-3,6.1117164E-3,8.595348E-2],"split_indices":[0,0,0,2,1,0,0,0,0],"split_type":[0,0,0,0,0,0,0,0,0],"sum_hessian":[1.6363552E1,1.4349496E1,2.0140557E0,1.1753071E1,2.5964255E0,2.1289659E0,9.6241045E0,1.5686524E0,1.027773E0],"tree_param":{"num_deleted":"0","num_feature":"4","num_nodes":"9","size_leaf_vector":"1"}},{"base_weights":[-1.8456279E-3,-1.3401392E-1,1.4866933E-1,1.7001954E-1,-3.839527E-1,-1.1469214E-1,3.6656138E-1,4.5462772E-2,-2.2241337E-2,-5.693365E-2,-5.9803757E-3,4.4235926E-2,-7.2128E-2,5.300056E-2,-5.8757355E-3],"categories":[],"categories_nodes":[],"categories_segments":[],"categories_sizes":[],"default_left":[0,0,0,0,0,0,0,0,0,0,0,0,0,0,0],"id":48,"left_children":[1,3,5,7,9,11,13,-1,-1,-1,-1,-1,-1,-1,-1],"loss_changes":[3.6378574E-1,8.046219E-1,5.330114E-1,6.6881174E-1,3.0527258E-1,1.8853704E0,3.7318808E-1,0E0,0E0,0E0,0E0,0E0,0E0,0E0,0E0],"parents":[2147483647,0,0,1,1,2,2,3,3,4,4,5,5,6,6],"right_children":[2,4,6,8,10,12,14,-1,-1,-1,-1,-1,-1,-1,-1],"split_conditions":[6.1598843E-1,5.295708E-1,5.5237366E1,4.3895042E1,5.2227505E1,3.477574E1,6.847647E-1,4.5462772E-2,-2.2241337E-2,-5.693365E-2,-5.9803757E-3,4.4235926E-2,-7.2128E-2,5.300056E-2,-5.8757355E-3],"split_indices":[3,3,1,1,1,1,3,0,0,0,0,0,0,0,0],"split_type":[0,0,0,0,0,0,0,0,0,0,0,0,0,0,0],"sum_hessian":[1.628531E1,8.729502E0,7.555809E0,4.0828047E0,4.6466975E0,3.6354032E0,3.9204059E0,2.2746506E0,1.8081539E0,2.4748843E0,2.171813E0,2.036215E0,1.5991879E0,2.654269E0,1.2661369E0],"tree_param":{"num_deleted":"0","num_feature":"4","num_nodes":"15","size_leaf_vector":"1"}},{"base_weights":[-3.3102722E-3,-2.3633026E-1,8.539052E-2,2.2472239E-1,-7.404112E-2,5.127911E-2,-6.085661E-2,-2.2977958E-2,5.2801408E-2,3.9504074E-2,-2.4327306E-2],"categories":[],"categories_nodes":[],"categories_segments":[],"categories_sizes":[],"default_left":[0,0,0,0,0,0,0,0,0,0,0],"id":49,"left_children":[1,3,5,7,-1,-1,9,-1,-1,-1,-1],"loss_changes":[3.7459826E-1,1.3268101E0,8.5342604E-1,5.8655715E-1,0E0,0E0,9.8549664E-1,0E0,0E0,0E0,0E0],"parents":[2147483647,0,0,1,1,2,2,3,3,6,6],"right_children":[2,4,6,8,-1,-1,10,-1,-1,-1,-1],"split_conditions":[1.5234956E0,1.4955857E0,1.5525144E0,6.4065206E-1,-7.404112E-2,5.127911E-2,9.061716E-1,-2.2977958E-2,5.2801408E-2,3.9504074E-2,-2.4327306E-2],"split_indices":[0,0,0,3,0,0,2,0,0,0,0],"split_type":[0,0,0,0,0,0,0,0,0,0,0],"sum_hessian":[1.6147268E1,3.9930465E0,1.2154222E1,2.3749843E0,1.6180621E0,2.459656E0,9.694565E0,1.0475478E0,1.3274366E0,2.4373965E0,7.257169E0],"tree_param":{"num_deleted":"0","num_feature":"4","num_nodes":"11","size_leaf_vector":"1"}}]},"name":"gbtree"},"learner_model_param":{"base_score":"[1.7567568E-1]","boost_from_average":"1","num_class":"0","num_feature":"4","num_target":"1"},"objective":{"name":"binary:logistic","reg_loss_param":{"scale_pos_weight":"1"}}},"version":[3,2,0]}